digraph Tree {
0 [label="$S100MiB <= 0.5000\nmse = 1.75489989844e+15\nsamples = 16", shape="box"] ;
1 [label="$Finest <= 0.5000\nmse = 2.16744842041e+15\nsamples = 7", shape="box"] ;
0 -> 1 ;
2 [label="$INCompressor <= 0.5000\nmse = 1.23816875e+12\nsamples = 4", shape="box"] ;
1 -> 2 ;
3 [label="$ITracing <= 0.5000\nmse = 547600000000.0\nsamples = 2", shape="box"] ;
2 -> 3 ;
4 [label="mse = 0.0000\nsamples = 1\nvalue = [ 51940000.]", shape="box"] ;
3 -> 4 ;
5 [label="mse = 0.0000\nsamples = 1\nvalue = [ 53420000.]", shape="box"] ;
3 -> 5 ;
6 [label="$SingleWriteNIO <= 0.5000\nmse = 133225000000.0\nsamples = 2", shape="box"] ;
2 -> 6 ;
7 [label="mse = 0.0000\nsamples = 1\nvalue = [ 54940000.]", shape="box"] ;
6 -> 7 ;
8 [label="mse = 0.0000\nsamples = 1\nvalue = [ 54210000.]", shape="box"] ;
6 -> 8 ;
9 [label="$Verifier <= 0.5000\nmse = 586022222220.0\nsamples = 3", shape="box"] ;
1 -> 9 ;
10 [label="$NewIO <= 0.5000\nmse = 108900000000.0\nsamples = 2", shape="box"] ;
9 -> 10 ;
11 [label="mse = 0.0000\nsamples = 1\nvalue = [  1.47860000e+08]", shape="box"] ;
10 -> 11 ;
12 [label="mse = 0.0000\nsamples = 1\nvalue = [  1.48520000e+08]", shape="box"] ;
10 -> 12 ;
13 [label="mse = 0.0000\nsamples = 1\nvalue = [  1.46670000e+08]", shape="box"] ;
9 -> 13 ;
14 [label="$Finest <= 0.5000\nmse = 5.47547654321e+13\nsamples = 9", shape="box"] ;
0 -> 14 ;
15 [label="$DirectNIO <= 0.5000\nmse = 2.05044722222e+12\nsamples = 6", shape="box"] ;
14 -> 15 ;
16 [label="$Severe <= 0.5000\nmse = 750200000000.0\nsamples = 3", shape="box"] ;
15 -> 16 ;
17 [label="$OldIO <= 0.5000\nmse = 27225000000.0\nsamples = 2", shape="box"] ;
16 -> 17 ;
18 [label="mse = 0.0000\nsamples = 1\nvalue = [ 33470000.]", shape="box"] ;
17 -> 18 ;
19 [label="mse = 0.0000\nsamples = 1\nvalue = [ 33140000.]", shape="box"] ;
17 -> 19 ;
20 [label="mse = 0.0000\nsamples = 1\nvalue = [ 35120000.]", shape="box"] ;
16 -> 20 ;
21 [label="$ITracing <= 0.5000\nmse = 116422222222.0\nsamples = 3", shape="box"] ;
15 -> 21 ;
22 [label="mse = 0.0000\nsamples = 1\nvalue = [ 30890000.]", shape="box"] ;
21 -> 22 ;
23 [label="$Statistics <= 0.5000\nmse = 4225000000.0\nsamples = 2", shape="box"] ;
21 -> 23 ;
24 [label="mse = 0.0000\nsamples = 1\nvalue = [ 31540000.]", shape="box"] ;
23 -> 24 ;
25 [label="mse = 0.0000\nsamples = 1\nvalue = [ 31670000.]", shape="box"] ;
23 -> 25 ;
26 [label="$Statistics <= 0.5000\nmse = 994066666666.0\nsamples = 3", shape="box"] ;
14 -> 26 ;
27 [label="mse = 0.0000\nsamples = 1\nvalue = [ 46680000.]", shape="box"] ;
26 -> 27 ;
28 [label="$NIOType <= 0.5000\nmse = 25000000.0\nsamples = 2", shape="box"] ;
26 -> 28 ;
29 [label="mse = 0.0000\nsamples = 1\nvalue = [ 48790000.]", shape="box"] ;
28 -> 29 ;
30 [label="mse = 0.0000\nsamples = 1\nvalue = [ 48800000.]", shape="box"] ;
28 -> 30 ;
}