digraph Tree {
0 [label="$licm <= 0.5000\nmse = 33224190024.3\nsamples = 64", shape="box"] ;
1 [label="$gvn <= 0.5000\nmse = 16355537135.1\nsamples = 29", shape="box"] ;
0 -> 1 ;
2 [label="$instcombine <= 0.5000\nmse = 7926185999.07\nsamples = 17", shape="box"] ;
1 -> 2 ;
3 [label="$inline <= 0.5000\nmse = 1757116916.75\nsamples = 8", shape="box"] ;
2 -> 3 ;
4 [label="$sccp <= 0.5000\nmse = 304129376.96\nsamples = 5", shape="box"] ;
3 -> 4 ;
5 [label="$ipsccp <= 0.5000\nmse = 120129454.188\nsamples = 4", shape="box"] ;
4 -> 5 ;
6 [label="mse = 0.0000\nsamples = 1\nvalue = [ 2080466.]", shape="box"] ;
5 -> 6 ;
7 [label="$iv_users <= 0.5000\nmse = 41968597.5552\nsamples = 3", shape="box"] ;
5 -> 7 ;
8 [label="mse = 0.0000\nsamples = 1\nvalue = [ 2049633.]", shape="box"] ;
7 -> 8 ;
9 [label="$jump_threading <= 0.5000\nmse = 1000000.0\nsamples = 2", shape="box"] ;
7 -> 9 ;
10 [label="mse = 0.0000\nsamples = 1\nvalue = [ 2064266.]", shape="box"] ;
9 -> 10 ;
11 [label="mse = 0.0000\nsamples = 1\nvalue = [ 2062266.]", shape="box"] ;
9 -> 11 ;
12 [label="mse = 0.0000\nsamples = 1\nvalue = [ 2028100.]", shape="box"] ;
4 -> 12 ;
13 [label="$jump_threading <= 0.5000\nmse = 122083442.0\nsamples = 3", shape="box"] ;
3 -> 13 ;
14 [label="$iv_users <= 0.5000\nmse = 90000.0\nsamples = 2", shape="box"] ;
13 -> 14 ;
15 [label="mse = 0.0000\nsamples = 1\nvalue = [ 2129400.]", shape="box"] ;
14 -> 15 ;
16 [label="mse = 0.0000\nsamples = 1\nvalue = [ 2130000.]", shape="box"] ;
14 -> 16 ;
17 [label="mse = 0.0000\nsamples = 1\nvalue = [ 2153133.]", shape="box"] ;
13 -> 17 ;
18 [label="$inline <= 0.5000\nmse = 1420517320.77\nsamples = 9", shape="box"] ;
2 -> 18 ;
19 [label="$print_used_types <= 0.5000\nmse = 68592992.667\nsamples = 3", shape="box"] ;
18 -> 19 ;
20 [label="$iv_users <= 0.5000\nmse = 4270422.25\nsamples = 2", shape="box"] ;
19 -> 20 ;
21 [label="mse = 0.0000\nsamples = 1\nvalue = [ 2193333.]", shape="box"] ;
20 -> 21 ;
22 [label="mse = 0.0000\nsamples = 1\nvalue = [ 2197466.]", shape="box"] ;
20 -> 22 ;
23 [label="mse = 0.0000\nsamples = 1\nvalue = [ 2212600.]", shape="box"] ;
19 -> 23 ;
24 [label="$jump_threading <= 0.5000\nmse = 534161430.889\nsamples = 6", shape="box"] ;
18 -> 24 ;
25 [label="$sccp <= 0.5000\nmse = 143197122.25\nsamples = 2", shape="box"] ;
24 -> 25 ;
26 [label="mse = 0.0000\nsamples = 1\nvalue = [ 2244900.]", shape="box"] ;
25 -> 26 ;
27 [label="mse = 0.0000\nsamples = 1\nvalue = [ 2268833.]", shape="box"] ;
25 -> 27 ;
28 [label="$ipsccp <= 0.5000\nmse = 608145279.188\nsamples = 4", shape="box"] ;
24 -> 28 ;
29 [label="mse = 0.0000\nsamples = 1\nvalue = [ 2295533.]", shape="box"] ;
28 -> 29 ;
30 [label="$simplifycfg <= 0.5000\nmse = 640562222.222\nsamples = 3", shape="box"] ;
28 -> 30 ;
31 [label="$sccp <= 0.5000\nmse = 81902500.0\nsamples = 2", shape="box"] ;
30 -> 31 ;
32 [label="mse = 0.0000\nsamples = 1\nvalue = [ 2277500.]", shape="box"] ;
31 -> 32 ;
33 [label="mse = 0.0000\nsamples = 1\nvalue = [ 2295600.]", shape="box"] ;
31 -> 33 ;
34 [label="mse = 0.0000\nsamples = 1\nvalue = [ 2235200.]", shape="box"] ;
30 -> 34 ;
35 [label="$instcombine <= 0.5000\nmse = 7540814099.47\nsamples = 12", shape="box"] ;
1 -> 35 ;
36 [label="$inline <= 0.5000\nmse = 2624118641.75\nsamples = 8", shape="box"] ;
35 -> 36 ;
37 [label="$iv_users <= 0.5000\nmse = 945782160.583\nsamples = 6", shape="box"] ;
36 -> 37 ;
38 [label="$simplifycfg <= 0.5000\nmse = 285485289.0\nsamples = 4", shape="box"] ;
37 -> 38 ;
39 [label="$sccp <= 0.5000\nmse = 4068289.0\nsamples = 2", shape="box"] ;
38 -> 39 ;
40 [label="mse = 0.0000\nsamples = 1\nvalue = [ 2322000.]", shape="box"] ;
39 -> 40 ;
41 [label="mse = 0.0000\nsamples = 1\nvalue = [ 2317966.]", shape="box"] ;
39 -> 41 ;
42 [label="$jump_threading <= 0.5000\nmse = 288422289.0\nsamples = 2", shape="box"] ;
38 -> 42 ;
43 [label="mse = 0.0000\nsamples = 1\nvalue = [ 2313366.]", shape="box"] ;
42 -> 43 ;
44 [label="mse = 0.0000\nsamples = 1\nvalue = [ 2279400.]", shape="box"] ;
42 -> 44 ;
45 [label="$sccp <= 0.5000\nmse = 6935322.25\nsamples = 2", shape="box"] ;
37 -> 45 ;
46 [label="mse = 0.0000\nsamples = 1\nvalue = [ 2247333.]", shape="box"] ;
45 -> 46 ;
47 [label="mse = 0.0000\nsamples = 1\nvalue = [ 2252600.]", shape="box"] ;
45 -> 47 ;
48 [label="$iv_users <= 0.5000\nmse = 1661907522.25\nsamples = 2", shape="box"] ;
36 -> 48 ;
49 [label="mse = 0.0000\nsamples = 1\nvalue = [ 2418966.]", shape="box"] ;
48 -> 49 ;
50 [label="mse = 0.0000\nsamples = 1\nvalue = [ 2337433.]", shape="box"] ;
48 -> 50 ;
51 [label="$simplifycfg <= 0.5000\nmse = 3145720766.75\nsamples = 4", shape="box"] ;
35 -> 51 ;
52 [label="$print_used_types <= 0.5000\nmse = 459006666.667\nsamples = 3", shape="box"] ;
51 -> 52 ;
53 [label="mse = 0.0000\nsamples = 1\nvalue = [ 2399266.]", shape="box"] ;
52 -> 53 ;
54 [label="$ipsccp <= 0.5000\nmse = 125440000.0\nsamples = 2", shape="box"] ;
52 -> 54 ;
55 [label="mse = 0.0000\nsamples = 1\nvalue = [ 2429166.]", shape="box"] ;
54 -> 55 ;
56 [label="mse = 0.0000\nsamples = 1\nvalue = [ 2451566.]", shape="box"] ;
54 -> 56 ;
57 [label="mse = 0.0000\nsamples = 1\nvalue = [ 2548900.]", shape="box"] ;
51 -> 57 ;
58 [label="$inline <= 0.5000\nmse = 27319167638.7\nsamples = 35", shape="box"] ;
0 -> 58 ;
59 [label="$instcombine <= 0.5000\nmse = 18030004153.0\nsamples = 17", shape="box"] ;
58 -> 59 ;
60 [label="$gvn <= 0.5000\nmse = 6698195131.16\nsamples = 10", shape="box"] ;
59 -> 60 ;
61 [label="$sccp <= 0.5000\nmse = 316185475.333\nsamples = 6", shape="box"] ;
60 -> 61 ;
62 [label="$simplifycfg <= 0.5000\nmse = 122828888.89\nsamples = 3", shape="box"] ;
61 -> 62 ;
63 [label="$ipsccp <= 0.5000\nmse = 133402500.0\nsamples = 2", shape="box"] ;
62 -> 63 ;
64 [label="mse = 0.0000\nsamples = 1\nvalue = [ 2166366.]", shape="box"] ;
63 -> 64 ;
65 [label="mse = 0.0000\nsamples = 1\nvalue = [ 2143266.]", shape="box"] ;
63 -> 65 ;
66 [label="mse = 0.0000\nsamples = 1\nvalue = [ 2167166.]", shape="box"] ;
62 -> 66 ;
67 [label="$iv_users <= 0.5000\nmse = 255411064.222\nsamples = 3", shape="box"] ;
61 -> 67 ;
68 [label="mse = 0.0000\nsamples = 1\nvalue = [ 2160633.]", shape="box"] ;
67 -> 68 ;
69 [label="$simplifycfg <= 0.5000\nmse = 57251922.25\nsamples = 2", shape="box"] ;
67 -> 69 ;
70 [label="mse = 0.0000\nsamples = 1\nvalue = [ 2184333.]", shape="box"] ;
69 -> 70 ;
71 [label="mse = 0.0000\nsamples = 1\nvalue = [ 2199466.]", shape="box"] ;
69 -> 71 ;
72 [label="$sccp <= 0.5000\nmse = 397610569.5\nsamples = 4", shape="box"] ;
60 -> 72 ;
73 [label="mse = 0.0000\nsamples = 1\nvalue = [ 2302366.]", shape="box"] ;
72 -> 73 ;
74 [label="$print_used_types <= 0.5000\nmse = 116919842.0\nsamples = 3", shape="box"] ;
72 -> 74 ;
75 [label="mse = 0.0000\nsamples = 1\nvalue = [ 2357333.]", shape="box"] ;
74 -> 75 ;
76 [label="$iv_users <= 0.5000\nmse = 21776222.25\nsamples = 2", shape="box"] ;
74 -> 76 ;
77 [label="mse = 0.0000\nsamples = 1\nvalue = [ 2340533.]", shape="box"] ;
76 -> 77 ;
78 [label="mse = 0.0000\nsamples = 1\nvalue = [ 2331200.]", shape="box"] ;
76 -> 78 ;
79 [label="$gvn <= 0.5000\nmse = 4325314837.26\nsamples = 7", shape="box"] ;
59 -> 79 ;
80 [label="$print_used_types <= 0.5000\nmse = 245972172.25\nsamples = 2", shape="box"] ;
79 -> 80 ;
81 [label="mse = 0.0000\nsamples = 1\nvalue = [ 2342233.]", shape="box"] ;
80 -> 81 ;
82 [label="mse = 0.0000\nsamples = 1\nvalue = [ 2373600.]", shape="box"] ;
80 -> 82 ;
83 [label="$iv_users <= 0.5000\nmse = 41553112.959\nsamples = 5", shape="box"] ;
79 -> 83 ;
84 [label="mse = 0.0000\nsamples = 1\nvalue = [ 2513233.]", shape="box"] ;
83 -> 84 ;
85 [label="$sccp <= 0.5000\nmse = 11137716.75\nsamples = 4", shape="box"] ;
83 -> 85 ;
86 [label="$print_used_types <= 0.5000\nmse = 9610000.0\nsamples = 2", shape="box"] ;
85 -> 86 ;
87 [label="mse = 0.0000\nsamples = 1\nvalue = [ 2497166.]", shape="box"] ;
86 -> 87 ;
88 [label="mse = 0.0000\nsamples = 1\nvalue = [ 2503366.]", shape="box"] ;
86 -> 88 ;
89 [label="$print_used_types <= 0.5000\nmse = 9199089.0\nsamples = 2", shape="box"] ;
85 -> 89 ;
90 [label="mse = 0.0000\nsamples = 1\nvalue = [ 2500666.]", shape="box"] ;
89 -> 90 ;
91 [label="mse = 0.0000\nsamples = 1\nvalue = [ 2494600.]", shape="box"] ;
89 -> 91 ;
92 [label="$iv_users <= 0.5000\nmse = 4624034943.65\nsamples = 18", shape="box"] ;
58 -> 92 ;
93 [label="$jump_threading <= 0.5000\nmse = 6020169251.2\nsamples = 10", shape="box"] ;
92 -> 93 ;
94 [label="$instcombine <= 0.5000\nmse = 4586172911.2\nsamples = 5", shape="box"] ;
93 -> 94 ;
95 [label="$gvn <= 0.5000\nmse = 5128956948.22\nsamples = 3", shape="box"] ;
94 -> 95 ;
96 [label="mse = 0.0000\nsamples = 1\nvalue = [ 2671700.]", shape="box"] ;
95 -> 96 ;
97 [label="$simplifycfg <= 0.5000\nmse = 158344472.25\nsamples = 2", shape="box"] ;
95 -> 97 ;
98 [label="mse = 0.0000\nsamples = 1\nvalue = [ 2508766.]", shape="box"] ;
97 -> 98 ;
99 [label="mse = 0.0000\nsamples = 1\nvalue = [ 2533933.]", shape="box"] ;
97 -> 99 ;
100 [label="$simplifycfg <= 0.5000\nmse = 28976689.0\nsamples = 2", shape="box"] ;
94 -> 100 ;
101 [label="mse = 0.0000\nsamples = 1\nvalue = [ 2497866.]", shape="box"] ;
100 -> 101 ;
102 [label="mse = 0.0000\nsamples = 1\nvalue = [ 2487100.]", shape="box"] ;
100 -> 102 ;
103 [label="$simplifycfg <= 0.5000\nmse = 5628877391.2\nsamples = 5", shape="box"] ;
93 -> 103 ;
104 [label="$sccp <= 0.5000\nmse = 5912109011.19\nsamples = 4", shape="box"] ;
103 -> 104 ;
105 [label="$ipsccp <= 0.5000\nmse = 5085548064.22\nsamples = 3", shape="box"] ;
104 -> 105 ;
106 [label="mse = 0.0000\nsamples = 1\nvalue = [ 2663233.]", shape="box"] ;
105 -> 106 ;
107 [label="$instcombine <= 0.5000\nmse = 5640010000.0\nsamples = 2", shape="box"] ;
105 -> 107 ;
108 [label="mse = 0.0000\nsamples = 1\nvalue = [ 2510900.]", shape="box"] ;
107 -> 108 ;
109 [label="mse = 0.0000\nsamples = 1\nvalue = [ 2661100.]", shape="box"] ;
107 -> 109 ;
110 [label="mse = 0.0000\nsamples = 1\nvalue = [ 2505966.]", shape="box"] ;
104 -> 110 ;
111 [label="mse = 0.0000\nsamples = 1\nvalue = [ 2660266.]", shape="box"] ;
103 -> 111 ;
112 [label="$print_used_types <= 0.5000\nmse = 2436545988.98\nsamples = 8", shape="box"] ;
92 -> 112 ;
113 [label="$jump_threading <= 0.5000\nmse = 725579223.688\nsamples = 4", shape="box"] ;
112 -> 113 ;
114 [label="$ipsccp <= 0.5000\nmse = 422208681.557\nsamples = 3", shape="box"] ;
113 -> 114 ;
115 [label="mse = 0.0000\nsamples = 1\nvalue = [ 2585566.]", shape="box"] ;
114 -> 115 ;
116 [label="$simplifycfg <= 0.5000\nmse = 5445222.25\nsamples = 2", shape="box"] ;
114 -> 116 ;
117 [label="mse = 0.0000\nsamples = 1\nvalue = [ 2626633.]", shape="box"] ;
116 -> 117 ;
118 [label="mse = 0.0000\nsamples = 1\nvalue = [ 2631300.]", shape="box"] ;
116 -> 118 ;
119 [label="mse = 0.0000\nsamples = 1\nvalue = [ 2661200.]", shape="box"] ;
113 -> 119 ;
120 [label="$instcombine <= 0.5000\nmse = 2593467566.75\nsamples = 4", shape="box"] ;
112 -> 120 ;
121 [label="$simplifycfg <= 0.5000\nmse = 55995289.0\nsamples = 2", shape="box"] ;
120 -> 121 ;
122 [label="mse = 0.0000\nsamples = 1\nvalue = [ 2512500.]", shape="box"] ;
121 -> 122 ;
123 [label="mse = 0.0000\nsamples = 1\nvalue = [ 2527466.]", shape="box"] ;
121 -> 123 ;
124 [label="$ipsccp <= 0.5000\nmse = 42250000.0\nsamples = 2", shape="box"] ;
120 -> 124 ;
125 [label="mse = 0.0000\nsamples = 1\nvalue = [ 2614366.]", shape="box"] ;
124 -> 125 ;
126 [label="mse = 0.0000\nsamples = 1\nvalue = [ 2627366.]", shape="box"] ;
124 -> 126 ;
}